{
  "network": {
    "architecture": [
      784,
      64,
      32,
      10
    ],
    "layers": [
      {
        "layer_index": 0,
        "type": "dense",
        "name": "dense_0",
        "activation": "relu",
        "weight_shape": [
          64,
          784
        ],
        "bias_shape": [
          64
        ],
        "weights": [
          [
            -0.04169117286801338,
            -0.023501062765717506,
            0.0025749572087079287,
            -0.007343273144215345,
            -0.03751593455672264,
            -0.03030720166862011,
            0.026576640084385872,
            0.008083946071565151,
            -0.040137384086847305,
            -0.01129962969571352,
            -0.014760707505047321,
            -0.0014788733096793294,
            -0.005780886393040419,
            -0.008492725901305676,
            -0.03180690109729767,
            -0.016105892136693,
            0.00703671807423234,
            -0.0017105544684454799,
            -0.030018460005521774,
            0.018732434138655663,
            0.0035336939617991447,
            0.011367042548954487,
            -0.041682418435811996,
            -0.005837698932737112,
            0.009146803058683872,
            -0.027795838192105293,
            -0.04020683839917183,
            -0.025424862280488014,
            -0.037985365837812424,
            -0.007432462181895971,
            0.028164198622107506,
            -0.0020959016401320696,
            -0.0258085448294878,
            -0.0035254505928605795,
            -0.015379846096038818,
            0.018215136602520943,
            -0.03419133275747299,
            -0.024074984714388847,
            0.02862720377743244,
            -0.006804043427109718,
            -0.0011210842058062553,
            -0.014471706002950668,
            -0.04179392382502556,
            0.009104030206799507,
            0.02648794837296009,
            0.012089158408343792,
            -0.004492591135203838,
            -0.021393321454524994,
            -0.005839758552610874,
            -0.01767639070749283,
            0.013844032771885395,
            0.01277631614357233,
            0.016488095745444298,
            -0.04161253944039345,
            0.019387731328606606,
            -0.03459163382649422,
            0.011883688159286976,
            -0.04138203337788582,
            -0.03226911649107933,
            -0.03424706310033798,
            -0.008019999600946903,
            0.01113312691450119,
            0.009409967809915543,
            -0.03921676427125931,
            -0.008260398171842098,
            0.02949664182960987,
            -0.011880774050951004,
            0.020276306197047234,
            0.007366528734564781,
            0.015482340939342976,
            0.036333117634058,
            0.021687021479010582,
            0.004784040618687868,
            0.008468752726912498,
            -0.03595726191997528,
            0.005245010834187269,
            -0.02350805513560772,
            -0.00114785460755229,
            0.004457216244190931,
            0.012953327968716621,
            -0.02817733772099018,
            0.0006082145846448839,
            -0.00792598631232977,
            -0.037508416920900345,
            0.0041391802951693535,
            0.013351003639400005,
            0.027812397107481956,
            0.001729781273752451,
            0.010248756967484951,
            -0.028675273060798645,
            -0.012517035007476807,
            0.017467079684138298,
            -0.025381579995155334,
            0.01659177988767624,
            0.031903982162475586,
            0.07480612397193909,
            0.04766872525215149,
            0.06706402450799942,
            0.048584096133708954,
            0.05605421960353851,
            0.020687609910964966,
            0.024080051109194756,
            0.01961274817585945,
            0.012922740541398525,
            0.024211909621953964,
            0.019280429929494858,
            0.010204079560935497,
            0.018448062241077423,
            -0.004365359898656607,
            0.01548258401453495,
            -0.014954645186662674,
            -0.028687985613942146,
            -0.021829435601830482,
            0.021063508465886116,
            0.028240501880645752,
            -0.0010024313814938068,
            0.006485917139798403,
            0.02641422487795353,
            0.04136979952454567,
            0.028378592804074287,
            0.04699891060590744,
            0.07653087377548218,
            0.08870963752269745,
            0.08123093843460083,
            0.03771582618355751,
            0.047134824097156525,
            0.032292015850543976,
            0.061277035623788834,
            0.07825624942779541,
            0.04243840277194977,
            0.047092974185943604,
            0.012218425050377846,
            -0.013551590964198112,
            -0.058391254395246506,
            -0.02691885456442833,
            -0.03900185227394104,
            -0.010727629996836185,
            -0.023799017071723938,
            0.02253642864525318,
            0.013070964254438877,
            -0.037069398909807205,
            0.003957326523959637,
            -0.003478021128103137,
            0.022066691890358925,
            -0.02036845125257969,
            0.02287040837109089,
            0.05713013932108879,
            -0.0022817228455096483,
            0.004388842731714249,
            -0.01614299789071083,
            -0.016881952062249184,
            0.031204573810100555,
            -0.012442969717085361,
            0.00910922046750784,
            0.01617548055946827,
            0.06260372698307037,
            0.04124822840094566,
            0.02963736467063427,
            0.04559805989265442,
            -0.006081050261855125,
            0.014367703348398209,
            -0.030817745253443718,
            -0.06479516625404358,
            -0.04394872859120369,
            0.0012623306829482317,
            -0.024781983345746994,
            -0.04254860430955887,
            0.0026716566644608974,
            -0.022429203614592552,
            -0.016200946643948555,
            0.019223200157284737,
            -0.02333753928542137,
            0.04927128553390503,
            0.0514347143471241,
            0.051094476133584976,
            -0.029998838901519775,
            0.024587662890553474,
            -0.04058890789747238,
            -0.03241560608148575,
            -0.042708177119493484,
            0.03199557960033417,
            0.024840714409947395,
            0.0012691824231296778,
            0.05017891898751259,
            0.035427119582891464,
            0.0013228249736130238,
            0.04122161492705345,
            0.02263723872601986,
            0.02116931602358818,
            0.012903408147394657,
            -0.0014757674653083086,
            -0.05144910141825676,
            -0.0598909854888916,
            -0.04295497015118599,
            -0.010820235125720501,
            0.006314615719020367,
            0.026989316567778587,
            -0.02105061523616314,
            -0.03415101021528244,
            0.022662563249468803,
            0.04746333137154579,
            0.04032740369439125,
            0.018564529716968536,
            -0.020414097234606743,
            -0.03741491213440895,
            -0.02842089906334877,
            -0.012303417548537254,
            0.0023053891491144896,
            -0.015930335968732834,
            0.008859630674123764,
            0.05227923393249512,
            0.06813476234674454,
            0.04518815129995346,
            0.047496553510427475,
            0.0047255889512598515,
            0.013308804482221603,
            -0.02764876000583172,
            0.03327587991952896,
            0.0357574000954628,
            -0.02238929457962513,
            -0.06165226921439171,
            -0.046982865780591965,
            -0.008932073600590229,
            -0.007618499919772148,
            0.005653660744428635,
            -0.007143036928027868,
            -0.0006759248208254576,
            0.02914215438067913,
            0.016010193154215813,
            -0.0008178912685252726,
            0.0468566007912159,
            0.004744278732687235,
            -0.04964220151305199,
            -0.01815018430352211,
            -0.02175549417734146,
            -0.04495294764637947,
            0.006123111117631197,
            0.031183669343590736,
            0.0669575184583664,
            0.07144636660814285,
            0.07166079431772232,
            0.04979756847023964,
            0.0258477870374918,
            -0.0016894167056307197,
            0.019945550709962845,
            0.0025512215215712786,
            0.020409246906638145,
            -0.0032412807922810316,
            -0.0618198923766613,
            -0.0019540113862603903,
            -0.025669964030385017,
            -0.025297265499830246,
            -0.04184788838028908,
            -0.013661281205713749,
            -0.02744268625974655,
            0.013878865167498589,
            0.011685376986861229,
            0.02477915585041046,
            -0.04573935270309448,
            -0.049635592848062515,
            -0.047372665256261826,
            -0.07140734791755676,
            -0.02883717603981495,
            -0.05912516638636589,
            -0.05683726817369461,
            -0.009097837843000889,
            0.06948280334472656,
            0.08594642579555511,
            0.074629046022892,
            0.043220385909080505,
            0.02427210845053196,
            0.015039687044918537,
            0.048418741673231125,
            0.021772067993879318,
            -0.005868700332939625,
            -0.04134616255760193,
            -0.05728595703840256,
            -0.01360304094851017,
            -0.03832881152629852,
            -0.02762177214026451,
            -0.04003085568547249,
            -0.014772719703614712,
            -0.004461823962628841,
            -0.01783994399011135,
            -0.026095004752278328,
            0.0023429947905242443,
            -0.02526663988828659,
            -0.09954233467578888,
            -0.09646231681108475,
            -0.09855540096759796,
            -0.08938897401094437,
            -0.11307273805141449,
            -0.07972292602062225,
            0.009476014412939548,
            0.052139777690172195,
            0.02124844864010811,
            0.014201001264154911,
            0.003909760154783726,
            0.04221625253558159,
            0.06322512030601501,
            0.045870594680309296,
            0.025226155295968056,
            0.04085661098361015,
            -0.011073486879467964,
            0.008080924861133099,
            0.009223061613738537,
            -0.014158095233142376,
            -2.8087670216336846e-05,
            -0.015857471153140068,
            0.01316838338971138,
            -0.018849322572350502,
            0.014188111759722233,
            -0.04475831612944603,
            -0.07290544360876083,
            -0.08316347002983093,
            -0.11303812265396118,
            -0.07836546003818512,
            -0.08503174036741257,
            -0.09721013158559799,
            -0.0721931904554367,
            -0.003369853598996997,
            -0.005002883728593588,
            -0.004930448718369007,
            -0.019534535706043243,
            0.017140094190835953,
            -0.018689317628741264,
            0.0011563592124730349,
            0.030022848397493362,
            -0.008973713964223862,
            -0.007683633826673031,
            -0.02248762734234333,
            -0.0034234332852065563,
            -0.03507101535797119,
            -0.032696619629859924,
            0.015842119231820107,
            -0.03284847363829613,
            -0.029043028131127357,
            0.0035490798763930798,
            -0.034347519278526306,
            0.014514634385704994,
            -0.04399947077035904,
            -0.09610966593027115,
            -0.06279172748327255,
            -0.05149198696017265,
            -0.0518585704267025,
            -0.04125814884901047,
            -0.031442176550626755,
            -0.02229739911854267,
            0.028621269389986992,
            0.0435713566839695,
            -0.012403804808855057,
            -0.028031978756189346,
            -0.03935490921139717,
            -0.053111396729946136,
            -0.037825025618076324,
            -0.02927737683057785,
            -0.07489600777626038,
            -0.05358947813510895,
            -0.04442751407623291,
            0.041595641523599625,
            -0.019960107281804085,
            0.008678157813847065,
            -0.005667997524142265,
            -0.02668001316487789,
            -0.0219565536826849,
            -0.006556468550115824,
            0.022804414853453636,
            -0.022444773465394974,
            -0.04596136882901192,
            -0.06254303455352783,
            -0.0784352719783783,
            -0.073421411216259,
            -0.03759230300784111,
            -0.011250174604356289,
            -0.006337916012853384,
            0.01610204018652439,
            0.02550612762570381,
            0.01999003253877163,
            -0.011276548728346825,
            -0.035123299807310104,
            -0.047708529978990555,
            -0.06552747637033463,
            -0.055442191660404205,
            -0.042452339082956314,
            -0.08130902796983719,
            -0.07201734185218811,
            0.017667561769485474,
            0.05025230348110199,
            0.03278958424925804,
            -0.028545934706926346,
            -0.025575678795576096,
            -0.041335053741931915,
            0.009200709871947765,
            -0.004686920903623104,
            -0.03972749784588814,
            -0.0029753639828413725,
            -0.0737871527671814,
            -0.06154852733016014,
            -0.07228031009435654,
            -0.043825577944517136,
            0.002353440271690488,
            0.016380764544010162,
            0.004870377480983734,
            0.0023313877172768116,
            0.043325889855623245,
            -0.010685816407203674,
            -0.023959869518876076,
            -0.04794001951813698,
            -0.0490875169634819,
            -0.027463238686323166,
            -0.04301508516073227,
            -0.04693363234400749,
            -0.06324619799852371,
            -0.025875508785247803,
            -0.007064188830554485,
            0.03210719674825668,
            0.01437628734856844,
            -0.02728993259370327,
            -0.02920244261622429,
            0.0063120778650045395,
            -0.018758388236165047,
            0.012890182435512543,
            -0.02707410790026188,
            -0.038007594645023346,
            -0.03608812764286995,
            0.0014163987943902612,
            -0.018791820853948593,
            -0.013944500125944614,
            -0.003237534547224641,
            0.0476335808634758,
            -0.00888447742909193,
            0.003098817775025964,
            0.047067560255527496,
            -0.034956272691488266,
            -0.019774779677391052,
            -0.03199121728539467,
            -0.013424582779407501,
            -0.007079899776726961,
            -0.04866645112633705,
            0.007569500710815191,
            -0.02883896231651306,
            0.004496967885643244,
            0.0031334683299064636,
            0.03429928049445152,
            0.04492131248116493,
            0.02071542851626873,
            0.027120012789964676,
            -0.04052291810512543,
            0.02124706842005253,
            0.018248852342367172,
            -0.018200237303972244,
            0.0066103157587349415,
            -0.014118921011686325,
            0.03267502412199974,
            0.00726925116032362,
            0.019506480544805527,
            0.015463127754628658,
            -0.007027800660580397,
            0.0508158802986145,
            -0.010951298289000988,
            -0.014459543861448765,
            -0.05798427388072014,
            -0.06236613914370537,
            -0.043155450373888016,
            0.002501195063814521,
            0.030958261340856552,
            0.04343464598059654,
            0.011493219062685966,
            -0.01392152439802885,
            0.011872711591422558,
            0.05101015791296959,
            0.0327148512005806,
            0.018152838572859764,
            0.03731656074523926,
            -0.02893979847431183,
            -0.03385790064930916,
            0.02789374254643917,
            -0.023557567968964577,
            0.038230881094932556,
            0.014317553490400314,
            0.08321309834718704,
            0.01511093694716692,
            0.019769402220845222,
            -0.0063638947904109955,
            0.0017107371240854263,
            -0.0007668217294849455,
            0.012066679075360298,
            -0.005673813167959452,
            -0.054112598299980164,
            -0.050868213176727295,
            -0.06409068405628204,
            -0.05924748629331589,
            0.007389376405626535,
            0.005813422612845898,
            0.019627060741186142,
            0.025202954187989235,
            0.03645237907767296,
            0.04064910486340523,
            0.07723046839237213,
            0.019233474507927895,
            0.02249503880739212,
            0.01392737403512001,
            -0.04357769712805748,
            0.010523189790546894,
            -0.027590615674853325,
            -0.030754510313272476,
            -0.000818072643596679,
            0.007467635907232761,
            0.0830741599202156,
            0.03935942426323891,
            0.010647841729223728,
            0.03150444105267525,
            0.021375903859734535,
            0.02805636264383793,
            0.009057620540261269,
            -0.05620957911014557,
            -0.053587593138217926,
            -0.12347795814275742,
            -0.06798041611909866,
            -0.003018823452293873,
            0.05268550291657448,
            0.05294923111796379,
            0.06497765332460403,
            0.023780906572937965,
            0.023166926577687263,
            0.03799128532409668,
            0.05812644213438034,
            0.015359676443040371,
            0.008186638355255127,
            -0.022901510819792747,
            0.020001409575343132,
            -0.021724406629800797,
            -0.0424073152244091,
            0.005748295690864325,
            0.0014464035630226135,
            0.06751670688390732,
            0.04602731019258499,
            0.07165979593992233,
            0.04109655320644379,
            0.03988004848361015,
            0.05741472542285919,
            0.0583174042403698,
            0.01845765858888626,
            0.0038149445317685604,
            -0.010562998242676258,
            -0.06674215942621231,
            -0.011916173622012138,
            0.04614108428359032,
            0.04491783678531647,
            0.055174488574266434,
            0.0692172721028328,
            0.031188173219561577,
            -0.004596203099936247,
            0.043414413928985596,
            0.025053981691598892,
            -0.028538400307297707,
            -0.011269642971456051,
            0.006719338707625866,
            0.015115241520106792,
            0.013908857479691505,
            0.024192655459046364,
            -0.04175230488181114,
            0.03328637778759003,
            0.019896287471055984,
            0.08116776496171951,
            0.03393876925110817,
            0.04538914933800697,
            0.030902720987796783,
            0.07676230370998383,
            0.07694405317306519,
            0.06675784289836884,
            0.05544028803706169,
            -0.006726356688886881,
            0.03275469318032265,
            0.035959210246801376,
            0.06752963364124298,
            0.0344943106174469,
            0.05645963177084923,
            0.06920240819454193,
            0.04216298088431358,
            0.05927259847521782,
            -0.007707986980676651,
            -0.01929597742855549,
            -0.03536297380924225,
            -0.0026895857881754637,
            0.005627186503261328,
            0.01593646965920925,
            -0.0387275367975235,
            0.00864756666123867,
            -0.032066475600004196,
            -0.010110841132700443,
            0.01855095662176609,
            0.01658216305077076,
            0.06102045997977257,
            0.006583882961422205,
            0.05411386489868164,
            -0.006548567209392786,
            0.021496020257472992,
            0.05377443879842758,
            0.014618840999901295,
            0.028811223804950714,
            0.04447302222251892,
            0.040363479405641556,
            0.03472403436899185,
            0.05025022104382515,
            0.054489411413669586,
            0.036798059940338135,
            0.02629508264362812,
            0.014170054346323013,
            -0.041348934173583984,
            -0.009583353996276855,
            -0.03618359938263893,
            -0.03698477894067764,
            -0.0022061492782086134,
            0.009770983830094337,
            0.010420571081340313,
            -0.0027605192735791206,
            0.019303472712635994,
            -0.0034471156541258097,
            0.03472813218832016,
            0.02683982253074646,
            0.02624245174229145,
            0.039062704890966415,
            0.04959052801132202,
            0.015171804465353489,
            0.05624110996723175,
            0.04719162359833717,
            0.03941888362169266,
            0.049240291118621826,
            0.0184714887291193,
            -0.0037383423186838627,
            0.02402428910136223,
            0.04597478732466698,
            0.03993618115782738,
            0.012641489505767822,
            -0.023257609456777573,
            -0.060505904257297516,
            -0.030337583273649216,
            -0.006686922628432512,
            -0.010439062491059303,
            -0.01925913244485855,
            -0.033794574439525604,
            0.02071315422654152,
            0.027522694319486618,
            0.019413085654377937,
            0.016152773052453995,
            0.02919437363743782,
            0.03322429955005646,
            0.027278797701001167,
            0.03145749494433403,
            0.031344663351774216,
            0.02887582778930664,
            0.05111879110336304,
            0.025117799639701843,
            -0.004818835761398077,
            0.05223889276385307,
            -0.0008019573870114982,
            -0.0023375258315354586,
            -0.0017513788770884275,
            0.012415573932230473,
            -0.012987476773560047,
            -0.032319385558366776,
            -0.02880759723484516,
            -0.03267393261194229,
            -0.04641038924455643,
            -0.03660942241549492,
            -0.003360376926138997,
            0.002112539717927575,
            0.023811999708414078,
            0.02387816272675991,
            -0.02253522165119648,
            0.007702639792114496,
            -0.005119497422128916,
            0.01590649224817753,
            -0.010097004473209381,
            0.03809555247426033,
            0.013078383170068264,
            -0.0022527051623910666,
            0.031620465219020844,
            0.03755617141723633,
            0.035953328013420105,
            0.06859488040208817,
            0.049623046070337296,
            0.045235104858875275,
            0.010049685835838318,
            0.02761821448802948,
            0.008110220544040203,
            0.007681671530008316,
            0.010503999888896942,
            0.015892673283815384,
            -0.053231921046972275,
            -0.04499558359384537,
            -0.02671496942639351,
            -0.038107965141534805,
            -0.0057309893891215324,
            -0.039391931146383286,
            -0.032094888389110565,
            -0.03103264421224594,
            -0.038670796900987625,
            0.01990761049091816,
            -0.017604583874344826,
            0.020139632746577263,
            0.0025827581994235516,
            0.020694561302661896,
            -0.033927228301763535,
            -0.036185652017593384,
            -0.023793689906597137,
            0.0550675168633461,
            0.002976394956931472,
            0.06659003347158432,
            0.06722146272659302,
            0.05028131976723671,
            0.046808935701847076,
            0.030530638992786407,
            -0.06535724550485611,
            -0.03027075156569481,
            -0.07696069031953812,
            -0.08259674906730652,
            -0.042022399604320526,
            -0.007989179342985153,
            -0.02951635606586933,
            -0.03926237300038338,
            -0.03046318143606186,
            -0.03597911447286606,
            -0.023412099108099937,
            -0.01877044327557087,
            0.01861790381371975,
            0.004638410173356533,
            -0.02408815734088421,
            -0.04189545288681984,
            0.018894867971539497,
            0.018964016810059547,
            0.011963513679802418,
            -0.03218155354261398,
            -0.04215262085199356,
            -0.034685250371694565,
            -0.018530048429965973,
            0.0029383026994764805,
            -0.03759618476033211,
            -0.031972579658031464,
            -0.005971075035631657,
            0.009955628775060177,
            -0.025622567161917686,
            -0.026429958641529083,
            -0.03818073496222496,
            -0.04845549538731575,
            0.008152227848768234,
            -0.028360439464449883,
            -0.009793705306947231,
            -0.04352346062660217,
            -0.03326811268925667,
            -0.03252413496375084,
            -0.04110218957066536,
            0.009013318456709385,
            0.005033381748944521,
            0.017369579523801804,
            -0.007200175430625677,
            -0.023079896345734596,
            -0.04111843928694725,
            0.010694772936403751,
            0.017118822783231735,
            0.013735839165747166,
            0.011400607414543629,
            0.025182293727993965,
            0.00693158945068717,
            -0.021457906812429428,
            -0.011995134875178337,
            -0.014825432561337948,
            0.020542079582810402,
            0.01621151715517044,
            0.00047130644088611007,
            0.02201838418841362,
            -0.017444990575313568,
            -0.02417811006307602,
            0.00469881109893322,
            0.012994842603802681,
            0.028176281601190567,
            -0.0416165329515934,
            -0.036875154823064804,
            -0.0018511781236156821,
            -0.023814154788851738,
            0.018609391525387764,
            -0.04273476079106331,
            -0.000609258480835706
          ],
          [
            -0.014002872630953789,
            -0.00317907496355474,
            -0.013319818302989006,
            -0.020343191921710968,
            -0.004419833421707153,
            -0.019754234701395035,
            0.0026447067502886057,
            0.009584974497556686,
            -0.025829847902059555,
            -0.055084194988012314,
            -0.055851247161626816,
            -0.048554059118032455,
            -0.014737797901034355,
            0.009580474346876144,
            -0.03504845127463341,
            -0.049259040504693985,
            -0.03908652439713478,
            -0.036194805055856705,
            0.007872078567743301,
            -0.02645452320575714,
            -0.048896584659814835,
            -0.04592059925198555,
            -0.04576138034462929,
            -0.052584465593099594,
            -0.015221241861581802,
            0.0035855239257216454,
            -0.03998737409710884,
            -0.05040104314684868,
            -0.027121778577566147,
            -0.003986302763223648,
            -0.005094601307064295,
            -0.0055578360334038734,
            -0.004236532375216484,
            -0.0007332926616072655,
            -0.012084679678082466,
            -0.06055613234639168,
            -0.002090805908665061,
            -0.0047834464348852634,
            -0.025368710979819298,
            -0.020991796627640724,
            -0.003416152438148856,
            -0.027189631015062332,
            -0.05851057916879654,
            -0.03673059865832329,
            -0.05727584287524223,
            0.0029144687578082085,
            -0.04032253473997116,
            0.0055791279301047325,
            -0.02206922508776188,
            -0.0024557721335440874,
            -0.009084063582122326,
            -0.015411192551255226,
            -0.048927415162324905,
            -0.020081698894500732,
            -0.04020575061440468,
            0.0012057145358994603,
            -0.04506755992770195,
            -0.056877609342336655,
            -0.004278904292732477,
            -0.051555532962083817,
            0.0011589969508349895,
            -0.03667344152927399,
            -0.032332729548215866,
            -0.03139295428991318,
            -0.05806494504213333,
            -0.029453566297888756,
            -0.004181670490652323,
            -0.012569387443363667,
            -0.007519082631915808,
            -0.05130143091082573,
            -0.06254108250141144,
            -0.07779482752084732,
            -0.06126704439520836,
            -0.005153746344149113,
            -0.04986690729856491,
            -0.038834597915410995,
            -0.05615125223994255,
            -0.04857433959841728,
            -0.028277326375246048,
            -0.0284752007573843,
            -0.00012270122533664107,
            -0.0501294769346714,
            -0.03971289470791817,
            -0.01136653870344162,
            -0.032892096787691116,
            -0.006727189756929874,
            -0.04945393651723862,
            -0.008598938584327698,
            -0.04839290678501129,
            -0.010656246915459633,
            0.0014546128222718835,
            -0.05860809236764908,
            -0.01528219599276781,
            -0.002030818024650216,
            0.013051639311015606,
            0.024625204503536224,
            -0.030897231772542,
            -0.012969216331839561,
            0.0003554466529749334,
            -0.030895672738552094,
            -0.042699653655290604,
            -0.020370787009596825,
            0.01215185597538948,
            0.02060406282544136,
            0.02651294320821762,
            -0.017223838716745377,
            -0.04403320699930191,
            -0.04764409735798836,
            -0.043579477816820145,
            0.004449395462870598,
            -0.04037781432271004,
            -0.03801744803786278,
            -0.0164262056350708,
            -0.01007196493446827,
            -0.033281680196523666,
            0.001702565117739141,
            -0.010295487940311432,
            -0.015495378524065018,
            -0.010141441598534584,
            -0.013479504734277725,
            -0.021047960966825485,
            0.007125403732061386,
            -0.002240107161924243,
            -0.0031021523755043745,
            0.0013461598427966237,
            -0.016343893483281136,
            0.011607073247432709,
            -0.005796732380986214,
            -0.0026163652073591948,
            -0.038867637515068054,
            -0.030615435913205147,
            -0.021380510181188583,
            -0.04757062345743179,
            0.012471649795770645,
            -0.04363318532705307,
            -0.00744920689612627,
            0.007326893508434296,
            -0.02131546102464199,
            -0.04832116514444351,
            -0.0029763677157461643,
            0.003591722808778286,
            -0.028936855494976044,
            0.0007634867215529084,
            -0.03546399995684624,
            0.0051794108003377914,
            -0.042192526161670685,
            0.021755550056695938,
            -0.006961201783269644,
            -0.019205251708626747,
            0.01872573047876358,
            0.0021414037328213453,
            0.02456948161125183,
            -0.03971213847398758,
            -0.02481066808104515,
            -0.03652191534638405,
            -0.005785914603620768,
            -0.04944293200969696,
            -0.06991522759199142,
            -0.05859433487057686,
            -0.07382131367921829,
            -0.08070898056030273,
            -0.043183304369449615,
            -0.0911775752902031,
            -0.06559611111879349,
            -0.04304222762584686,
            -0.03937651589512825,
            -0.03138088434934616,
            -0.019498063251376152,
            -0.020928028970956802,
            0.006064652930945158,
            -0.016817715018987656,
            0.016900397837162018,
            -0.043819818645715714,
            -0.02834387496113777,
            -0.007304471917450428,
            0.016485191881656647,
            0.03009851463139057,
            0.03558104857802391,
            0.03743816539645195,
            0.033021315932273865,
            0.05345575138926506,
            0.01115180179476738,
            0.030087703838944435,
            0.03844955191016197,
            0.007249393500387669,
            0.01364290900528431,
            0.020866403356194496,
            -0.04454488307237625,
            -0.05001242086291313,
            -0.014596369117498398,
            -0.031855061650276184,
            -0.04342243820428848,
            -0.011738688684999943,
            -0.06903763860464096,
            -0.06528192013502121,
            -0.03970557451248169,
            0.007909777574241161,
            -0.021523501724004745,
            0.002434412483125925,
            -0.02499319054186344,
            -0.00020734680583700538,
            0.005142822861671448,
            0.04099956899881363,
            0.03479262441396713,
            0.012833721935749054,
            0.029907118529081345,
            0.05152937024831772,
            0.02731679379940033,
            0.031279899179935455,
            0.05892644450068474,
            0.07418056577444077,
            0.08265723288059235,
            0.06133388355374336,
            0.06410437077283859,
            0.0441855788230896,
            0.03556891158223152,
            -0.02540753409266472,
            0.008610609918832779,
            -0.054611384868621826,
            -0.039738547056913376,
            -0.011019766330718994,
            -0.06735998392105103,
            -0.040332894772291183,
            0.007730939891189337,
            -0.007196703925728798,
            -0.05939890816807747,
            -0.030063031241297722,
            0.008665865287184715,
            -0.0484149307012558,
            -0.024168848991394043,
            0.007855262607336044,
            -0.01842101290822029,
            0.026755213737487793,
            0.03727297484874725,
            0.011614245362579823,
            0.003566005965694785,
            0.047697700560092926,
            0.0026392601430416107,
            0.06714659184217453,
            0.07304307073354721,
            0.058709800243377686,
            0.054362427443265915,
            0.013075010851025581,
            0.02587316744029522,
            -0.006053037941455841,
            0.02227160893380642,
            0.02466394565999508,
            -0.036871567368507385,
            -0.006241091527044773,
            -0.06540964543819427,
            -0.06021883711218834,
            0.0048999423161149025,
            -0.010632634162902832,
            -0.052103862166404724,
            -0.04226183518767357,
            -0.027501419186592102,
            0.01954123191535473,
            -0.01848049834370613,
            -0.018798675388097763,
            0.009653850458562374,
            0.04825777933001518,
            0.024627793580293655,
            -0.0058360593393445015,
            -0.005853837821632624,
            -0.01672535389661789,
            0.04048099368810654,
            0.01845487952232361,
            0.022777479141950607,
            0.064442478120327,
            0.00911213830113411,
            0.07633762806653976,
            0.07380743324756622,
            0.03735562041401863,
            0.06236794590950012,
            0.03014305792748928,
            0.0006724632112309337,
            -0.01705927960574627,
            -0.011579983867704868,
            -0.040022335946559906,
            0.00119309825822711,
            -0.009371663443744183,
            -0.027165664359927177,
            -0.012328512966632843,
            -0.021970102563500404,
            0.01983015425503254,
            -0.015116306021809578,
            0.015164615586400032,
            0.02140500396490097,
            -0.004403444938361645,
            0.003673967905342579,
            0.019289355725049973,
            -0.01966753788292408,
            -0.0037581794895231724,
            0.020222317427396774,
            0.030312132090330124,
            0.06228432059288025,
            0.03783094137907028,
            0.07093119621276855,
            0.07307452708482742,
            0.06573116034269333,
            0.08459176868200302,
            0.035482313483953476,
            0.05929610878229141,
            0.034770410507917404,
            -0.047332704067230225,
            -0.06529493629932404,
            -0.05559283494949341,
            0.00042091787327080965,
            -0.03658604994416237,
            0.014338244684040546,
            0.009641671553254128,
            0.00994359515607357,
            0.02864501252770424,
            0.011263685300946236,
            0.03217725828289986,
            0.03727274015545845,
            0.021280940622091293,
            0.015246891416609287,
            0.05374428257346153,
            0.02881673164665699,
            0.050216156989336014,
            0.08710357546806335,
            0.06710724532604218,
            0.056415438652038574,
            0.006744768936187029,
            0.06103631481528282,
            0.10486475378274918,
            0.05240148305892944,
            0.10021112859249115,
            0.09211824834346771,
            0.052045177668333054,
            0.050516922026872635,
            -0.055320464074611664,
            -0.06309030950069427,
            -0.0635024756193161,
            -0.044622134417295456,
            -0.05435984954237938,
            -0.009897029958665371,
            -0.040350161492824554,
            -0.005996167194098234,
            0.010563546791672707,
            0.0221311766654253,
            0.029802018776535988,
            0.05754566937685013,
            0.03931371495127678,
            0.03658905252814293,
            0.03906834498047829,
            0.006937576923519373,
            0.01330700796097517,
            0.021173618733882904,
            0.016205627471208572,
            0.02986852638423443,
            0.029228590428829193,
            0.04306955263018608,
            0.0904870554804802,
            0.030365224927663803,
            0.04094643518328667,
            0.027952885255217552,
            0.05896737799048424,
            0.030709125101566315,
            -0.043133996427059174,
            -0.07332882285118103,
            -0.008245237171649933,
            -0.05628794804215431,
            0.0048634703271090984,
            -0.025506705045700073,
            -0.05266740918159485,
            0.01655750907957554,
            0.027445349842309952,
            0.07023783773183823,
            0.08086144924163818,
            0.045120298862457275,
            0.05825797840952873,
            0.034954626113176346,
            0.03302742913365364,
            -0.024398058652877808,
            -0.0005119163542985916,
            -0.020777270197868347,
            -0.02952152118086815,
            -0.011339468881487846,
            0.04307179152965546,
            0.008436212316155434,
            0.018921948969364166,
            0.03741329535841942,
            0.035306964069604874,
            0.050251636654138565,
            0.06982067227363586,
            0.0681840181350708,
            0.01458047702908516,
            -0.02636139653623104,
            -0.019086340442299843,
            -0.03981255739927292,
            -0.039724837988615036,
            -0.03656226396560669,
            -0.040324416011571884,
            0.0023783426731824875,
            0.04982640594244003,
            0.027061091735959053,
            0.06586168706417084,
            0.000376152282115072,
            -0.01033778116106987,
            0.04097757488489151,
            0.03475669026374817,
            -0.04153897613286972,
            -0.03994198516011238,
            -0.04271716624498367,
            -0.06504137814044952,
            -0.049957696348428726,
            -0.023547083139419556,
            0.006414417177438736,
            0.05930839106440544,
            0.06859889626502991,
            0.029588904231786728,
            0.0365358330309391,
            0.07518454641103745,
            0.015354587696492672,
            0.019466333091259003,
            -0.04122133180499077,
            -0.05300036817789078,
            -0.045811209827661514,
            -0.024570336565375328,
            -0.020684078335762024,
            -0.04791155084967613,
            -0.03436049818992615,
            -0.039132602512836456,
            0.046910300850868225,
            0.005353502929210663,
            0.04345676302909851,
            0.029512424021959305,
            -0.02054951898753643,
            0.029340200126171112,
            -0.014442401938140392,
            -0.07352671772241592,
            -0.1090293675661087,
            -0.070731520652771,
            -0.04258520528674126,
            0.009382800199091434,
            0.021350674331188202,
            0.0728558823466301,
            0.02429608255624771,
            0.01924099214375019,
            0.08860409259796143,
            0.0730675458908081,
            0.01436412613838911,
            -0.043377917259931564,
            -0.07735268771648407,
            -0.020160838961601257,
            -0.05556651949882507,
            -0.01783982291817665,
            -0.02529199607670307,
            -0.04153028503060341,
            -0.05398036912083626,
            -0.02112000435590744,
            0.034580688923597336,
            0.006242630537599325,
            0.014170997776091099,
            0.03478957340121269,
            -0.010912759229540825,
            -0.025197358801960945,
            -0.01671789027750492,
            -0.03700799122452736,
            -0.08888255804777145,
            -0.08121421933174133,
            -0.045212067663669586,
            -0.02191956341266632,
            0.013393083587288857,
            0.015016784891486168,
            0.0502496175467968,
            0.016035424545407295,
            0.020189082249999046,
            0.03792869299650192,
            0.026430318132042885,
            -0.0743136927485466,
            -0.07195617258548737,
            -0.04914750158786774,
            -0.014589750207960606,
            -0.05401736870408058,
            -0.008360037580132484,
            0.005997612606734037,
            -0.05143829435110092,
            0.02227647602558136,
            0.03652999550104141,
            0.017213545739650726,
            0.01562458649277687,
            0.05868956446647644,
            0.015753770247101784,
            -0.03577670827507973,
            -0.011625128798186779,
            -0.039895351976156235,
            -0.06600511074066162,
            -0.027751974761486053,
            -0.05175710469484329,
            -0.016374144703149796,
            0.054017048329114914,
            0.048943229019641876,
            0.0014821183867752552,
            0.06335483491420746,
            0.0066268956288695335,
            -0.017607979476451874,
            -0.052382942289114,
            -0.07107178121805191,
            -0.08867163956165314,
            -0.04801182821393013,
            -0.021994974464178085,
            -0.05496162176132202,
            0.0028970225248485804,
            -0.05115238204598427,
            0.00602861400693655,
            -0.04435792192816734,
            -0.022830331698060036,
            -0.015835242345929146,
            0.004721721168607473,
            0.02183271199464798,
            -0.04002244770526886,
            -0.044686365872621536,
            0.004349069204181433,
            -0.04636082798242569,
            -0.04476429149508476,
            -0.06413574516773224,
            0.006167520768940449,
            0.01506976317614317,
            -0.0005655767163261771,
            0.026888277381658554,
            0.04280772805213928,
            0.010500842705368996,
            -0.02872019074857235,
            -0.02727332152426243,
            -0.06998559832572937,
            -0.09957917034626007,
            -0.04307228699326515,
            -0.022366488352417946,
            -0.007486990187317133,
            -0.0009947159560397267,
            -0.04496932774782181,
            -0.03185103461146355,
            -0.03244994953274727,
            -0.0034117596223950386,
            -0.00304510910063982,
            0.01417062059044838,
            -0.027597345411777496,
            0.023157402873039246,
            -0.013927586376667023,
            0.0004780138551723212,
            -0.05730178579688072,
            -0.031867288053035736,
            -0.006508245132863522,
            -0.02981415018439293,
            -0.017997808754444122,
            -0.030664950609207153,
            -0.03060046397149563,
            0.027160795405507088,
            0.003751566633582115,
            0.015711087733507156,
            -0.032317258417606354,
            -0.041638050228357315,
            -0.09458678215742111,
            -0.06022775545716286,
            -0.04961100593209267,
            -0.056791163980960846,
            -0.0265674889087677,
            0.0019553289748728275,
            0.00796649418771267,
            -0.04717961326241493,
            -0.017771394923329353,
            -0.008072278462350368,
            -0.013345333747565746,
            -0.046702828258275986,
            -0.03386456519365311,
            0.006306318566203117,
            -0.036306437104940414,
            -0.04663923382759094,
            0.008829033933579922,
            0.030196236446499825,
            0.01805110275745392,
            0.02401510626077652,
            0.03483374044299126,
            -0.03502945974469185,
            -0.00023352261632680893,
            -0.015043500810861588,
            -0.006193097215145826,
            -0.010392586700618267,
            -0.0681796446442604,
            -0.04634483531117439,
            -0.02915171906352043,
            -0.03904654458165169,
            -0.006989598739892244,
            -0.018525848165154457,
            -0.015495928935706615,
            -0.023527977988123894,
            0.003678117645904422,
            -0.020748652517795563,
            -0.05009865760803223,
            -0.027121348306536674,
            -0.015441850759088993,
            -0.05151982605457306,
            -0.01667168363928795,
            -0.05586319416761398,
            -0.011446181684732437,
            0.008724728599190712,
            -0.014225760474801064,
            0.025255916640162468,
            0.043061092495918274,
            0.039317045360803604,
            0.027962911874055862,
            -0.017576143145561218,
            -0.029518811032176018,
            -0.01243513636291027,
            -0.05276994779706001,
            -0.031994711607694626,
            -0.0436311699450016,
            -0.07308100163936615,
            -0.040426187217235565,
            -0.02388358674943447,
            -0.0281012374907732,
            -0.05516846850514412,
            -0.05638687312602997,
            -0.059043627232313156,
            -0.0075642806477844715,
            -0.031005747616291046,
            -0.02313772216439247,
            -0.04090062156319618,
            -0.057432323694229126,
            -0.031843554228544235,
            -0.03203291818499565,
            -0.046780992299318314,
            -0.00983898900449276,
            -0.028490988537669182,
            0.014342539012432098,
            0.029384657740592957,
            0.013072947971522808,
            0.02564295008778572,
            0.04252772033214569,
            0.05558290705084801,
            0.0037399313878268003,
            -0.029149353504180908,
            -0.017767328768968582,
            -0.04393192380666733,
            -0.02419945038855076,
            -0.06422654539346695,
            -0.010691763833165169,
            -0.06380987167358398,
            -0.030097564682364464,
            -0.017871953547000885,
            -0.04536569118499756,
            -0.02254578471183777,
            -0.03597361966967583,
            -0.024616776034235954,
            -0.008029162883758545,
            -0.059053368866443634,
            -0.04639451578259468,
            -0.011646426282823086,
            -0.004320164676755667,
            0.0022236297372728586,
            -0.048687051981687546,
            0.021639415994286537,
            -0.02376498468220234,
            0.04965449124574661,
            0.03958730027079582,
            0.05616835504770279,
            0.027160698547959328,
            0.010915626771748066,
            -0.02137739397585392,
            -0.016163337975740433,
            -0.09691178053617477,
            -0.039362065494060516,
            -0.045604318380355835,
            -0.039001140743494034,
            -0.014876849949359894,
            -0.03018122911453247,
            -0.021620789542794228,
            -0.015043571591377258,
            -0.04678848013281822,
            0.0004926067776978016,
            -0.05343170836567879,
            -0.06007353961467743,
            -0.04201165586709976,
            0.019191766157746315,
            0.006987632252275944,
            -0.006506978068500757,
            0.008956349454820156,
            0.018609771504998207,
            0.0351128913462162,
            0.06152099743485451,
            0.03231923654675484,
            0.041884876787662506,
            0.041793812066316605,
            0.05682291463017464,
            0.019127001985907555,
            0.004298053216189146,
            -0.020317543298006058,
            -0.04980578273534775,
            -0.03575099632143974,
            -0.05993734672665596,
            -0.02252211607992649,
            -0.05486195906996727,
            -0.019894106313586235,
            -0.019534267485141754,
            -0.03826460614800453,
            -0.027353059500455856,
            -0.054079215973615646,
            -0.04411184415221214,
            -0.04932979866862297,
            -0.04617401957511902,
            -0.006586920004338026,
            -0.006001196801662445,
            0.010427664034068584,
            0.01122206449508667,
            0.006384554784744978,
            0.012226306833326817,
            0.05349685624241829,
            0.05576828122138977,
            0.09049025177955627,
            0.055992491543293,
            0.08994980901479721,
            0.07978938519954681,
            0.01675352081656456,
            0.02671842649579048,
            0.015506464056670666,
            -0.012215730734169483,
            0.004648720845580101,
            -0.021374035626649857,
            0.0268397219479084,
            -0.02659759856760502,
            -0.018593624234199524,
            -0.0007828508969396353,
            0.00017994294466916472,
            -0.0426965095102787,
            -0.04966158792376518,
            -0.037706490606069565,
            -0.01976434513926506,
            -0.04469350352883339,
            -0.04612969234585762,
            -0.031610213220119476,
            -0.019632814452052116,
            0.005632840562611818,
            0.015122922137379646,
            0.02166726067662239,
            0.015887366607785225,
            -0.010020098648965359,
            0.02718822844326496,
            0.05755975469946861,
            0.054588429629802704,
            0.02678418904542923,
            -0.0002541592693887651,
            0.03648344427347183,
            0.005601390730589628,
            0.023111842572689056,
            -0.006783836055546999,
            0.008399054408073425,
            -0.03210373967885971,
            0.011452947743237019,
            -0.05485779047012329,
            -0.041181258857250214,
            -0.05918338894844055,
            -0.040770743042230606,
            -0.046634431928396225,
            -0.05925268307328224,
            -0.03377153351902962,
            -0.01935681700706482,
            0.00531789381057024,
            -0.0394018329679966,
            -0.007144938223063946,
            -0.056263700127601624,
            -0.022641723975539207,
            -0.05538507550954819,
            -0.006701808422803879,
            -0.002456862246617675,
            -0.0032987664453685284,
            -0.045676615089178085,
            -0.05179603025317192,
            -0.03727475181221962,
            -0.05301108583807945,
            -0.01210002414882183,
            -0.02080053649842739,
            -0.00873873196542263,
            -0.012430360540747643,
            0.007490863092243671,
            -0.0027173301205039024,
            0.001924622803926468,
            0.0037225892301648855,
            -0.0487327016890049,
            -0.060757189989089966,
            -0.04767172411084175,
            -0.016126109287142754
          ],
          [
            0.0032200769055634737,
            -0.01413507480174303,
            0.012257649563252926,
            0.021593056619167328,
            0.02494034171104431,
            -0.02117019146680832,
            -0.02927301451563835,
            0.0046891807578504086,
            -0.032098229974508286,
            -0.02986687794327736,
            0.01418000366538763,
            -0.017272990196943283,
            0.009424454532563686,
            -0.023141715675592422,
            0.017442531883716583,
            -0.02324499562382698,
            -0.031234106048941612,
            -0.03962944447994232,
            0.010370935313403606,
            0.007561372593045235,
            0.005424524191766977,
            -0.03486214578151703,
            -0.04278368502855301,
            0.02268308401107788,
            -0.04272616654634476,
            -0.01760309934616089,
            0.025096122175455093,
            -0.0025370039511471987,
            -0.02802445739507675,
            0.0241975300014019,
            -0.00803734827786684,
            0.009478574618697166,
            -0.03995858505368233,
            -0.009566244669258595,
            0.0023362210486084223,
            -0.014181941747665405,
            -0.03936741128563881,
            -0.0084450114518404,
            -0.02853897213935852,
            -0.016057651489973068,
            -0.014815965667366982,
            -0.009244569577276707,
            -0.03303653374314308,
            0.010236501693725586,
            -0.035969194024801254,
            -0.042479757219552994,
            -0.01699059270322323,
            0.020240483805537224,
            0.00847956445068121,
            0.00140894774813205,
            -0.04274124279618263,
            -0.011073451489210129,
            -0.021272532641887665,
            -0.02652214840054512,
            -0.00040799821726977825,
            -0.005894845351576805,
            -0.037923842668533325,
            -0.03298133611679077,
            -0.0019954645540565252,
            -0.02730163186788559,
            0.004869661759585142,
            -0.02218969538807869,
            -0.030268525704741478,
            0.025575993582606316,
            -0.005521773360669613,
            -0.00025673318305052817,
            -0.019623273983597755,
            0.01881973259150982,
            0.01162843406200409,
            0.03445032611489296,
            -0.02804017998278141,
            -0.0042164199985563755,
            0.008990718051791191,
            0.02218378148972988,
            -0.014890052378177643,
            0.010150807909667492,
            -0.02352547086775303,
            -0.008576840162277222,
            -0.02641984075307846,
            -0.02081987075507641,
            -0.03244239464402199,
            -0.03284621611237526,
            0.012328804470598698,
            0.008102770894765854,
            0.01426426786929369,
            -0.03323056548833847,
            0.0005365892429836094,
            0.010469965636730194,
            0.007986578159034252,
            -0.0016114645404741168,
            -0.021560318768024445,
            -0.031508516520261765,
            0.022068943828344345,
            -0.0014714597491547465,
            -0.032725971192121506,
            0.00874321535229683,
            -0.04762057960033417,
            -0.012512343004345894,
            0.02035265788435936,
            0.025492310523986816,
            -0.033992353826761246,
            0.013632404617965221,
            -0.009356869384646416,
            0.04021834954619408,
            0.02775227651000023,
            -0.006899355910718441,
            -0.001303859637118876,
            0.012408849783241749,
            0.02736707404255867,
            -0.008721578866243362,
            -0.03153737634420395,
            -0.04333820939064026,
            0.0003971309633925557,
            -0.02836787700653076,
            -0.00225592078641057,
            -0.023089125752449036,
            -0.04166654497385025,
            -0.003890030086040497,
            -0.0027588452212512493,
            -0.015440043061971664,
            0.002735048532485962,
            -0.020611587911844254,
            -0.005119590554386377,
            -0.05904318764805794,
            -0.03481712192296982,
            -0.017335359007120132,
            0.029782526195049286,
            -0.015045007690787315,
            0.028818396851420403,
            -0.0024918655399233103,
            0.0153141338378191,
            -0.03961631655693054,
            0.03581074997782707,
            0.021633218973875046,
            0.00419434392824769,
            0.02036292292177677,
            0.024359313771128654,
            -0.006752030458301306,
            -0.02488616853952408,
            -0.02395867183804512,
            0.009768771938979626,
            -0.03665585070848465,
            -0.019889403134584427,
            -0.0005204666522331536,
            0.006187071558088064,
            -0.03743218258023262,
            -0.050872206687927246,
            -0.00533335143700242,
            -0.014720316976308823,
            0.026027077808976173,
            0.032866690307855606,
            0.0011317972093820572,
            0.005985011346638203,
            0.011892243288457394,
            0.029796447604894638,
            0.07793700695037842,
            0.03699257969856262,
            0.054435160011053085,
            0.025943666696548462,
            0.01847720518708229,
            -0.038155753165483475,
            -0.024722954258322716,
            -0.0009039028664119542,
            0.042795199900865555,
            -0.014281777665019035,
            0.00393651332706213,
            -0.04138914495706558,
            -0.03501279652118683,
            0.008448579348623753,
            -0.00037127803079783916,
            -0.012935279868543148,
            0.013033829629421234,
            -0.028297118842601776,
            -0.028071507811546326,
            0.022440191358327866,
            0.01568857952952385,
            0.05235153064131737,
            0.028561703860759735,
            0.032760802656412125,
            -0.01065558660775423,
            -0.03735065460205078,
            0.007956712506711483,
            -0.010349242016673088,
            -0.013122913427650928,
            -0.014965351670980453,
            -0.003391227452084422,
            -0.005702630616724491,
            -0.035273414105176926,
            -0.039735328406095505,
            0.020921172574162483,
            0.06646885722875595,
            0.08021891862154007,
            0.0355660580098629,
            0.006583535578101873,
            -0.0006353880162350833,
            -0.007711568381637335,
            0.004321662243455648,
            -0.029023870825767517,
            0.024813709780573845,
            -0.019899750128388405,
            -0.041638340801000595,
            0.022167928516864777,
            -0.025055458769202232,
            0.06223621219396591,
            0.057940635830163956,
            0.08161124587059021,
            0.03815547749400139,
            -0.003281055251136422,
            -0.027421345934271812,
            -0.04205874726176262,
            -0.08914604038000107,
            -0.0934794470667839,
            -0.07371111214160919,
            -0.001117729814723134,
            -0.012233664281666279,
            -0.008945494890213013,
            -0.041266024112701416,
            -0.008862927556037903,
            0.01664912886917591,
            0.04709077998995781,
            0.030127326026558876,
            0.010602947324514389,
            0.004902405198663473,
            -0.02906057983636856,
            0.01625792682170868,
            -0.013091514818370342,
            0.004457201808691025,
            -0.02912086434662342,
            -0.04512974992394447,
            -0.015339289791882038,
            0.03075040690600872,
            0.05783473700284958,
            0.04207335412502289,
            0.07551746070384979,
            0.052750375121831894,
            0.03421108424663544,
            0.0018641500500962138,
            -0.1019853726029396,
            -0.12420453876256943,
            -0.08589764684438705,
            -0.0430932454764843,
            -0.050908949226140976,
            0.016652453690767288,
            0.026988107711076736,
            0.01997295767068863,
            -0.04054814204573631,
            0.034429676830768585,
            0.05963818356394768,
            0.04513528198003769,
            -0.05425938963890076,
            -0.03652307391166687,
            -0.02424776926636696,
            -0.02688145451247692,
            -0.03508688509464264,
            0.018461953848600388,
            -0.020985666662454605,
            -0.018855560570955276,
            0.021711459383368492,
            0.0605655163526535,
            0.03774642571806908,
            0.04826997593045235,
            0.06769303232431412,
            0.0019746802281588316,
            0.05291431024670601,
            0.0028495676815509796,
            -0.04138858988881111,
            -0.10811425745487213,
            -0.11436211317777634,
            -0.07517193257808685,
            -0.03034604899585247,
            0.00683214608579874,
            0.02560747042298317,
            -0.014994679018855095,
            0.001196503173559904,
            0.037459466606378555,
            0.008879795670509338,
            -0.059693410992622375,
            -0.017442472279071808,
            -0.04919818788766861,
            0.01261935755610466,
            0.014961698092520237,
            0.0011945428559556603,
            -0.0065060826018452644,
            0.019231004640460014,
            0.03019965998828411,
            0.009212126955389977,
            0.050461363047361374,
            0.051276516169309616,
            0.08195517212152481,
            0.07752495259046555,
            0.08636561036109924,
            0.057881828397512436,
            0.031459588557481766,
            -0.043884702026844025,
            -0.12357126176357269,
            -0.07553272694349289,
            -0.03590024262666702,
            0.024413926526904106,
            -0.018350625410676003,
            0.014116537757217884,
            -0.007433860097080469,
            -0.006315235048532486,
            0.04760497435927391,
            0.00908344704657793,
            -0.031695473939180374,
            -0.023480527102947235,
            -0.018427912145853043,
            0.003013875102624297,
            0.002057816367596388,
            0.020879710093140602,
            0.02505769580602646,
            -0.0009370645275339484,
            -0.022114822641015053,
            0.040859583765268326,
            0.037894170731306076,
            0.05688983201980591,
            0.0649026557803154,
            0.1182314082980156,
            0.08970630168914795,
            0.03909403830766678,
            0.051355574280023575,
            -0.030577396973967552,
            -0.1144116073846817,
            -0.05661961808800697,
            -0.0024707734119147062,
            0.010990530252456665,
            -0.0094273267313838,
            0.01938825473189354,
            0.01990206353366375,
            0.002462742617353797,
            0.036731820553541183,
            -0.002623999025672674,
            -0.026639383286237717,
            -0.008999289944767952,
            0.014980576001107693,
            0.0019049140391871333,
            -0.026409592479467392,
            -0.018016725778579712,
            0.02122628130018711,
            -0.01600007526576519,
            0.000549845804926008,
            0.05676308274269104,
            0.093207947909832,
            0.060889601707458496,
            0.07922832667827606,
            0.11363176256418228,
            0.09040186554193497,
            0.09194329380989075,
            0.03968511521816254,
            -0.007554362528026104,
            -0.05000843107700348,
            -0.0126665523275733,
            -0.022636685520410538,
            0.006322403904050589,
            -0.023235397413372993,
            0.062163058668375015,
            0.055757854133844376,
            0.04521183297038078,
            0.08741678297519684,
            0.09554674476385117,
            0.011060548014938831,
            0.022847866639494896,
            -0.02414010837674141,
            -0.02653471939265728,
            -0.03844217211008072,
            -0.006736621726304293,
            0.020791327580809593,
            0.021521611139178276,
            0.022664353251457214,
            0.05100654810667038,
            0.09118180721998215,
            0.0820889100432396,
            0.023199530318379402,
            0.08652494847774506,
            0.07463035732507706,
            0.11783333122730255,
            0.011361004784703255,
            -0.04151412844657898,
            -0.06112198531627655,
            0.0015992105472832918,
            0.025789720937609673,
            0.05335251986980438,
            -0.0015499299624934793,
            0.07429083436727524,
            0.09664636105298996,
            0.05335811898112297,
            0.10103773325681686,
            0.08387744426727295,
            0.049732599407434464,
            -0.03863402083516121,
            0.01726248860359192,
            0.022083522751927376,
            -0.024411911144852638,
            -0.00305272382684052,
            0.014652855694293976,
            -0.03868040814995766,
            -0.033526305109262466,
            0.06798721849918365,
            0.05017037317156792,
            0.08397748321294785,
            0.017787210643291473,
            0.00896978285163641,
            0.08293414115905762,
            0.09428204596042633,
            -0.014734787866473198,
            -0.040553219616413116,
            -0.07750392705202103,
            0.03331182897090912,
            0.008426793850958347,
            0.07469266653060913,
            0.015077552758157253,
            0.09260064363479614,
            0.04515934735536575,
            0.06857993453741074,
            0.07176635414361954,
            0.019275398924946785,
            -0.023091867566108704,
            -0.009574368596076965,
            0.01463839691132307,
            -0.013966528698801994,
            -0.02128375880420208,
            -0.03301165625452995,
            0.023728592321276665,
            -0.04241818189620972,
            -0.024788888171315193,
            -0.021171262487769127,
            0.006138675380498171,
            0.06360410153865814,
            0.015841206535696983,
            0.01864655129611492,
            0.01938699744641781,
            0.027171216905117035,
            -0.020612183958292007,
            0.00497968727722764,
            0.002460498595610261,
            0.020504260435700417,
            0.013308756053447723,
            0.06940501183271408,
            0.04315157234668732,
            0.04489492252469063,
            0.045187756419181824,
            0.013342425227165222,
            0.017278749495744705,
            -0.010224630124866962,
            -0.04771099239587784,
            -0.028380807489156723,
            -0.007035758346319199,
            -0.009805097244679928,
            0.007940718904137611,
            -0.01601889356970787,
            -0.020292652770876884,
            -0.05928982049226761,
            -0.043351706117391586,
            -0.01558888703584671,
            -0.0008911222103051841,
            0.028801923617720604,
            0.06853776425123215,
            0.028283653780817986,
            0.007850637659430504,
            0.0071939327754080296,
            0.016788659617304802,
            0.014378310181200504,
            0.03363516554236412,
            0.05462842434644699,
            0.07094524055719376,
            0.058865245431661606,
            0.04745735600590706,
            -0.00490970816463232,
            -0.007008490152657032,
            0.011016516014933586,
            -0.03129851073026657,
            9.997427696362138e-06,
            -0.0463581457734108,
            -0.011498375795781612,
            -0.02979215793311596,
            -0.003534730989485979,
            0.01855241321027279,
            -0.0255514495074749,
            -0.02615264244377613,
            -0.051390618085861206,
            -0.08176982402801514,
            -0.053103066980838776,
            -0.06972081959247589,
            0.008909160271286964,
            0.03343408554792404,
            0.0595378577709198,
            0.03770938888192177,
            0.09735710918903351,
            0.07202380150556564,
            0.04246540367603302,
            0.025100169703364372,
            0.020400723442435265,
            0.03380333632230759,
            0.0209683645516634,
            0.03842733055353165,
            -0.028603801503777504,
            -0.00783716794103384,
            -0.0166630819439888,
            -0.04047762230038643,
            -0.015368138439953327,
            -0.05406652390956879,
            -0.01122666709125042,
            -0.021370096132159233,
            -0.010132764466106892,
            -0.03533966839313507,
            -0.016125278547406197,
            0.00574084697291255,
            -0.048870187252759933,
            -0.11208699643611908,
            -0.10603848099708557,
            -0.09226196259260178,
            -0.0142518924549222,
            -0.006392636336386204,
            0.05686086043715477,
            0.03895958885550499,
            0.07438112050294876,
            0.09548711031675339,
            0.044293828308582306,
            0.012251344509422779,
            0.04304342344403267,
            0.004166329745203257,
            -0.003493265016004443,
            -0.021583620458841324,
            0.006228258367627859,
            -0.0442446805536747,
            0.010560514405369759,
            -0.017401937395334244,
            -0.037515439093112946,
            -0.05808006599545479,
            -0.019788822159171104,
            0.0179995596408844,
            -0.029789073392748833,
            -0.015752263367176056,
            -0.04231027513742447,
            0.006527543067932129,
            -0.028450723737478256,
            -0.06089804321527481,
            -0.10023612529039383,
            -0.03492024168372154,
            -0.0588732585310936,
            -0.037190116941928864,
            -0.0047898245975375175,
            0.04005567729473114,
            0.005065829027444124,
            0.010801481083035469,
            0.007816159166395664,
            -0.0032612676732242107,
            0.0057814354076981544,
            -0.035573627799749374,
            -0.05057387426495552,
            -0.012419851496815681,
            -0.0635262280702591,
            -0.05292194336652756,
            -0.021096911281347275,
            -0.02378334477543831,
            -0.046748071908950806,
            -0.040217239409685135,
            -0.029055921360850334,
            -0.0036110449582338333,
            -0.0033660507760941982,
            -0.04418663680553436,
            -0.03839338570833206,
            0.01796017587184906,
            -0.04816979169845581,
            -0.08112657070159912,
            -0.06157134100794792,
            -0.11271112412214279,
            -0.07525390386581421,
            -0.0915985032916069,
            -0.048184819519519806,
            -0.05037155747413635,
            -0.016325974836945534,
            0.022128768265247345,
            -0.012151414528489113,
            0.012352565303444862,
            0.003722937311977148,
            -0.00784495659172535,
            -0.051674213260412216,
            -0.04948108270764351,
            -0.0629037618637085,
            -0.022701799869537354,
            -0.04403006657958031,
            -0.006987778935581446,
            -0.045702897012233734,
            -0.02504499815404415,
            0.002962083090096712,
            -0.025015834718942642,
            -0.039581723511219025,
            0.023759115487337112,
            -0.030180690810084343,
            0.007497195154428482,
            -0.015644147992134094,
            -0.09196647256612778,
            -0.09225784987211227,
            -0.05746496468782425,
            -0.0703735202550888,
            -0.08389981091022491,
            -0.03517167270183563,
            -0.050638653337955475,
            -0.005408723372966051,
            0.014292043633759022,
            0.03070816956460476,
            0.02815866470336914,
            -0.006549914833158255,
            0.009384323842823505,
            -0.05267586559057236,
            -0.010990923270583153,
            -0.04393359646201134,
            -0.02301716059446335,
            0.00787498988211155,
            -0.060455016791820526,
            -0.057389646768569946,
            -0.022302431985735893,
            -0.04642471671104431,
            -0.01675085909664631,
            0.014220173470675945,
            0.021993432193994522,
            -0.011829785071313381,
            -0.007743198424577713,
            -0.031015774235129356,
            -0.06495638191699982,
            -0.10534163564443588,
            -0.10540001839399338,
            -0.08127301186323166,
            -0.059070587158203125,
            -0.03469229117035866,
            0.02793063223361969,
            0.04957412928342819,
            0.06106089428067207,
            0.051111869513988495,
            0.08128581941127777,
            0.037771075963974,
            0.009208612143993378,
            0.024555770680308342,
            -0.05769982561469078,
            -0.0011425160337239504,
            -0.011199009604752064,
            0.0020294063724577427,
            -0.0059230392798781395,
            -0.04715825244784355,
            -0.029275525361299515,
            -0.050511885434389114,
            -0.03768223151564598,
            0.01632101647555828,
            -0.004721558652818203,
            -0.006109046284109354,
            -0.010907795280218124,
            -0.021776452660560608,
            -0.025913117453455925,
            -0.06552568823099136,
            -0.10777556151151657,
            -0.0477573424577713,
            -0.032627373933792114,
            -0.05608386918902397,
            -0.009837689809501171,
            0.04891432449221611,
            0.0742873102426529,
            0.06894829124212265,
            0.11109748482704163,
            0.06183411553502083,
            0.02831004373729229,
            0.012651829048991203,
            0.0225010197609663,
            -0.0053906869143247604,
            0.009386721067130566,
            0.002610233146697283,
            -0.04041627421975136,
            -0.048675909638404846,
            -0.035228241235017776,
            -0.006633459590375423,
            -0.004096681717783213,
            0.021134957671165466,
            -0.00026279705343768,
            -0.028107747435569763,
            -0.03282234072685242,
            0.008991202339529991,
            -0.04849715158343315,
            -0.00990773644298315,
            -0.05277777835726738,
            -0.07647521048784256,
            -0.024723079055547714,
            -0.0270405150949955,
            0.03882225230336189,
            0.05552883818745613,
            0.01936790719628334,
            0.028971053659915924,
            0.06330331414937973,
            0.0622590072453022,
            0.05514824390411377,
            -0.0056928484700620174,
            -0.03322603926062584,
            0.022478440776467323,
            0.0005429701413959265,
            -0.02482849732041359,
            0.009436256252229214,
            -0.03685328736901283,
            -0.01611969992518425,
            0.00790328998118639,
            0.020882444456219673,
            -0.024638064205646515,
            -0.0028416092973202467,
            -0.011971156112849712,
            -0.042837005108594894,
            0.02682134322822094,
            -0.02124025672674179,
            0.015411119908094406,
            -0.022480260580778122,
            -0.026611974462866783,
            -0.019737709313631058,
            -0.04792386665940285,
            -0.03941837325692177,
            -0.04733209311962128,
            -0.027499793097376823,
            -0.03322748467326164,
            0.005334826186299324,
            -0.021282775327563286,
            -0.05676593258976936,
            -0.03467375040054321,
            -0.020024176687002182,
            -0.07166872918605804,
            -0.04858159273862839,
            -0.016509568318724632,
            -0.0023406820837408304,
            -0.029121141880750656,
            -0.01235110405832529,
            0.006401475053280592,
            0.022665679454803467,
            -0.008791903965175152,
            0.00764814019203186,
            0.024674925953149796,
            -0.0031165964901447296,
            -0.03024313785135746,
            0.020660873502492905,
            0.011437496170401573,
            0.017564982175827026,
            0.015536333434283733,
            -0.0060963984578847885,
            -0.029862675815820694,
            0.0032899139914661646,
            -0.04606802389025688,
            -0.05698433145880699,
            -0.026370737701654434,
            -0.031999170780181885,
            -0.03775922209024429,
            -0.008215483278036118,
            -0.052929822355508804,
            -0.041849132627248764,
            -0.037494584918022156,
            -0.015356793999671936,
            -0.04836222901940346,
            -0.027091387659311295,
            -0.011249254457652569,
            -0.03788808360695839,
            -0.00615537678822875,
            -0.005193525925278664,
            -0.004377200733870268,
            -0.0389680489897728,
            0.021041877567768097,
            0.019108017906546593,
            -0.03627721965312958,
            -0.03383653238415718,
            -0.0012980413157492876,
            -0.020540080964565277,
            -0.01924877054989338,
            0.01210278831422329,
            0.023790959268808365,
            -0.030681949108839035,
            -0.04342912137508392,
            -0.0006738467491231859,
            -0.021557236090302467,
            -0.04061061143875122,
            -0.02475087344646454,
            -0.018566157668828964,
            0.025512127205729485,
            -0.04199254512786865,
            0.023491257801651955,
            0.0217294804751873,
            0.006051409989595413,
            0.001785057713277638,
            -0.04168044030666351,
            -0.02058420702815056,
            -0.03422169387340546,
            0.013617613352835178,
            -0.026948722079396248
          ],
          [
            0.006119156256318092,
            -0.015175837092101574,
            -0.030653957277536392,
            0.0010843815980479121,
            -0.04020275920629501,
            -0.004836749285459518,
            -0.0054001640528440475,
            0.015911268070340157,
            -0.04689473658800125,
            -0.013544374145567417,
            -0.01627834141254425,
            0.008639455772936344,
            -0.0215032659471035,
            -0.027585316449403763,
            -0.017417363822460175,
            -0.029112663120031357,
            0.023037344217300415,
            -0.016807500272989273,
            -0.020974423736333847,
            0.014245827682316303,
            0.010850298218429089,
            -0.028183933347463608,
            -0.0436134859919548,
            -0.00560413021594286,
            -0.003523602383211255,
            -0.03319296985864639,
            -0.030220121145248413,
            0.020056895911693573,
            -0.01971646398305893,
            -0.014860540628433228,
            -0.006153237074613571,
            0.008361991494894028,
            0.0007967567071318626,
            -0.03723082318902016,
            0.013272534124553204,
            -0.005849241744726896,
            -0.044178783893585205,
            -0.04587271809577942,
            -0.0008776649483479559,
            -0.021263854578137398,
            -0.0377897247672081,
            0.023907624185085297,
            0.023709705099463463,
            -0.023448439314961433,
            -0.02145405113697052,
            -0.04492783173918724,
            -0.03300444036722183,
            -0.019563229754567146,
            0.013761145062744617,
            -0.04639068990945816,
            0.003755606012418866,
            0.008587519638240337,
            -0.009647615253925323,
            -0.021147098392248154,
            -0.014993147924542427,
            0.02007404714822769,
            -0.028118159621953964,
            0.013103839941322803,
            -0.0017987418686971068,
            -0.0255209282040596,
            -0.023301485925912857,
            -0.0011145946336910129,
            -0.023990396410226822,
            0.01344445813447237,
            -0.008903734385967255,
            0.0014447851572185755,
            0.027010874822735786,
            0.023148423060774803,
            0.020523743703961372,
            0.0200818981975317,
            0.017746051773428917,
            0.02527727372944355,
            0.04990941658616066,
            0.004596482031047344,
            0.0016364019829779863,
            0.022005898877978325,
            0.015388457104563713,
            0.0016203921986743808,
            -0.014631935395300388,
            0.0012530242092907429,
            -0.017781851813197136,
            0.02307889424264431,
            0.020774394273757935,
            0.012673082761466503,
            0.012776209972798824,
            -0.038007549941539764,
            -0.0436081737279892,
            0.0033984840847551823,
            -0.029477031901478767,
            0.017680013552308083,
            0.019589334726333618,
            0.014610853977501392,
            0.02809671312570572,
            0.04120054841041565,
            0.045903708785772324,
            0.03563445061445236,
            0.03865101560950279,
            0.01052219420671463,
            0.061586227267980576,
            0.025709237903356552,
            0.024815676733851433,
            0.005615680944174528,
            -0.003017765237018466,
            0.03636949509382248,
            0.006806539837270975,
            -0.01309236977249384,
            -0.037932563573122025,
            -0.05144251883029938,
            -0.028933927416801453,
            0.023203998804092407,
            -0.04075729101896286,
            0.00854187086224556,
            -0.014021041803061962,
            -0.038045428693294525,
            -0.02320237271487713,
            -0.016848593950271606,
            0.005011654458940029,
            -0.018686722964048386,
            -0.010145580396056175,
            -0.03585321828722954,
            -0.020277736708521843,
            0.03214040771126747,
            0.050150066614151,
            0.007127632386982441,
            0.05803185701370239,
            -0.01289672963321209,
            0.035911448299884796,
            0.04014959931373596,
            0.020729180425405502,
            0.015073430724442005,
            0.05437474325299263,
            -0.010199815034866333,
            0.0065667517483234406,
            -0.016923191025853157,
            -0.04483288526535034,
            -0.017812645062804222,
            0.015058278106153011,
            0.01775224879384041,
            -0.01900595799088478,
            0.013202623464167118,
            -0.002200228162109852,
            -0.0020676548592746258,
            -0.013957821764051914,
            -0.018617570400238037,
            0.020917683839797974,
            0.012544963508844376,
            -0.015353243798017502,
            -0.01124608889222145,
            0.010193907655775547,
            0.04719831421971321,
            0.03444349393248558,
            0.007914434187114239,
            -0.00552583672106266,
            0.017735326662659645,
            0.039296913892030716,
            0.0023905811831355095,
            0.06166178733110428,
            0.0100292032584548,
            0.04075198248028755,
            -0.0039062274154275656,
            -0.0012302605900913477,
            -0.0003480886807665229,
            -0.0020336254965513945,
            0.009159575216472149,
            0.008059586398303509,
            -0.032150767743587494,
            -0.012870806269347668,
            -0.02886764146387577,
            -0.04015307128429413,
            -0.04447223246097565,
            0.017578797414898872,
            -0.019378842785954475,
            0.024001115933060646,
            0.000941030215471983,
            0.022478695958852768,
            0.05616426095366478,
            0.025974582880735397,
            0.0487055741250515,
            0.05941006541252136,
            0.0006122636841610074,
            -0.004817203152924776,
            0.018886972218751907,
            0.015515760518610477,
            0.043464139103889465,
            -0.02168334275484085,
            0.009344257414340973,
            0.0024410556070506573,
            0.012383487075567245,
            -0.02877410687506199,
            0.041681546717882156,
            0.008499741554260254,
            0.02720140479505062,
            0.030017903074622154,
            0.017556611448526382,
            -0.003251848043873906,
            0.02285310998558998,
            -0.023434169590473175,
            -0.017002010717988014,
            -0.026148444041609764,
            -0.0294687170535326,
            0.02923114225268364,
            0.039900995790958405,
            0.017092494294047356,
            0.005032305605709553,
            0.059493791311979294,
            0.060445092618465424,
            0.015109708532691002,
            0.06543280929327011,
            0.020742565393447876,
            0.0018410917837172747,
            0.033169303089380264,
            0.02002715691924095,
            -0.021719936281442642,
            -0.00418419623747468,
            -0.036461178213357925,
            0.02992008998990059,
            0.02896927110850811,
            0.0014337170869112015,
            0.042757805436849594,
            0.03306584432721138,
            0.015875831246376038,
            0.014143423177301884,
            -0.008829417638480663,
            -0.009896009229123592,
            -0.029276330024003983,
            -0.028968708589673042,
            -0.013324241153895855,
            -0.024012163281440735,
            -0.02955525368452072,
            0.011831586249172688,
            0.026677647605538368,
            0.04414333403110504,
            0.009139631874859333,
            0.04621325060725212,
            0.03249410539865494,
            0.04816508665680885,
            0.024191807955503464,
            0.011743088252842426,
            0.0435759536921978,
            -0.003401175606995821,
            -0.035209499299526215,
            0.014849861152470112,
            -0.023081550374627113,
            -0.001027048914693296,
            -0.003839395474642515,
            -0.003752347081899643,
            0.011451014317572117,
            0.02571341022849083,
            0.00877185259014368,
            0.02790733613073826,
            0.009686182253062725,
            0.009790039621293545,
            -0.03161485865712166,
            -0.04279462993144989,
            -0.031927578151226044,
            -0.00024990877136588097,
            0.0016511769499629736,
            -0.007393609266728163,
            -0.014014883898198605,
            0.02249038964509964,
            0.027327990159392357,
            -0.0051328884437680244,
            0.013280057348310947,
            0.016356859356164932,
            0.04202444106340408,
            0.02517937310039997,
            0.012971702963113785,
            0.008550414815545082,
            0.025415511801838875,
            -0.008253373205661774,
            -0.028982805088162422,
            0.004364980850368738,
            -0.010247478261590004,
            0.025386663153767586,
            0.028068436309695244,
            -0.015889910981059074,
            0.03297023847699165,
            0.04468187317252159,
            0.00754209840670228,
            0.013375138863921165,
            -0.044064804911613464,
            -0.004142646677792072,
            0.022016575559973717,
            0.007103050593286753,
            -0.0046694292686879635,
            -0.051886964589357376,
            -0.04474416375160217,
            0.0028285370208323,
            -0.004171015229076147,
            0.01367898564785719,
            -0.034294791519641876,
            -0.02554825134575367,
            -0.02461215853691101,
            -0.048565540462732315,
            0.00929159764200449,
            -0.024798184633255005,
            -0.02631165087223053,
            -0.0038681053556501865,
            -0.057728178799152374,
            -0.04522555693984032,
            -0.05713247135281563,
            -0.01952788233757019,
            -0.064551442861557,
            0.006425156723707914,
            0.04008576646447182,
            0.03574497252702713,
            -0.005420119967311621,
            -0.024328937754034996,
            -0.016158245503902435,
            0.01858709193766117,
            -0.02129163034260273,
            -0.010567735880613327,
            -0.04534698277711868,
            -0.07406932860612869,
            -0.09236706048250198,
            -0.08845263719558716,
            -0.07205092161893845,
            -0.05945616587996483,
            -0.11045362800359726,
            -0.06317310780286789,
            -0.08319919556379318,
            -0.08588121831417084,
            -0.0675029382109642,
            -0.0324845016002655,
            -0.05193593353033066,
            -0.035331934690475464,
            -0.0757661685347557,
            -0.057475652545690536,
            -0.08895953744649887,
            -0.0699077621102333,
            -0.07498084008693695,
            -0.010163168422877789,
            -0.023156410083174706,
            0.016809793189167976,
            -0.014771540649235249,
            -0.010702809318900108,
            -0.014157195575535297,
            0.008371393196284771,
            -0.04510611295700073,
            0.0021845921874046326,
            -0.03963413089513779,
            -0.07869616895914078,
            -0.05499677732586861,
            -0.06745573878288269,
            -0.09285308420658112,
            -0.12248733639717102,
            -0.09200076758861542,
            -0.15364699065685272,
            -0.13108676671981812,
            -0.10023092478513718,
            -0.05479666590690613,
            -0.05102769285440445,
            -0.03227933868765831,
            -0.07355347275733948,
            -0.04413961246609688,
            -0.08091843873262405,
            -0.06647112965583801,
            -0.08610754460096359,
            -0.07529136538505554,
            -0.06075413525104523,
            -0.0603109635412693,
            -0.013505212031304836,
            -0.029804924502968788,
            0.023678652942180634,
            -0.037808336317539215,
            0.01941285841166973,
            -0.029391910880804062,
            -0.03590750694274902,
            -0.05152085795998573,
            -0.06449812650680542,
            -0.13284677267074585,
            -0.07733693718910217,
            -0.07940571755170822,
            -0.0957232192158699,
            -0.09339447319507599,
            -0.11757959425449371,
            -0.07153740525245667,
            0.01937336102128029,
            -0.02385001815855503,
            -0.0015303394757211208,
            -0.017870960757136345,
            -0.02138921618461609,
            -0.041217099875211716,
            -0.07648801803588867,
            -0.0640358254313469,
            -0.08223646134138107,
            -0.11354297399520874,
            -0.048946548253297806,
            -0.024672633036971092,
            0.03862754628062248,
            0.020398391410708427,
            -0.029441669583320618,
            -0.03694663941860199,
            0.016550365835428238,
            0.014783557504415512,
            -0.0521109513938427,
            -0.04595446214079857,
            -0.13272249698638916,
            -0.0665493831038475,
            -0.057686157524585724,
            -0.05271788686513901,
            -0.0724479928612709,
            -0.016509391367435455,
            -0.026362687349319458,
            0.024323318153619766,
            0.03656250238418579,
            0.006541810929775238,
            0.008823168464004993,
            -0.02075485698878765,
            -0.038078468292951584,
            -0.03893408551812172,
            -0.019474484026432037,
            -0.02688097022473812,
            -0.04382409527897835,
            -0.03187870979309082,
            -0.014321085065603256,
            -0.003158935811370611,
            0.0068163457326591015,
            0.03757384419441223,
            -0.03329293802380562,
            -0.03229721635580063,
            0.0044047352857887745,
            0.008308215998113155,
            -0.03737541660666466,
            -0.05744050443172455,
            -0.04028928279876709,
            -0.03409598767757416,
            -0.04722894728183746,
            -0.04370587319135666,
            -0.02331407368183136,
            -0.03362919017672539,
            0.03973741456866264,
            0.013174450956285,
            0.09802190959453583,
            0.08561032265424728,
            0.02321283519268036,
            -0.017603769898414612,
            -0.023114405572414398,
            -0.00827818177640438,
            0.0053020347841084,
            -0.04030977934598923,
            -0.000945163075812161,
            -0.04708503559231758,
            0.0038077360950410366,
            0.036248501390218735,
            0.02257351018488407,
            -0.022140463814139366,
            0.0065062325447797775,
            -0.012097041122615337,
            -0.015158171765506268,
            -0.029405999928712845,
            -0.03185092285275459,
            -0.01656876876950264,
            0.004970496986061335,
            -0.005040504038333893,
            -0.07126423716545105,
            -0.08458668738603592,
            -0.03240804374217987,
            -0.023663613945245743,
            0.05846588686108589,
            0.05083734169602394,
            0.06755214184522629,
            0.04169845953583717,
            0.04188813641667366,
            0.014384628273546696,
            0.008842948824167252,
            -0.011066092178225517,
            -0.02668019011616707,
            -0.019263088703155518,
            0.03038271889090538,
            0.006009115371853113,
            0.01087158266454935,
            0.04571625590324402,
            0.03816363960504532,
            -0.017885221168398857,
            0.007111596874892712,
            0.003341867821291089,
            0.0019112802110612392,
            0.008660874329507351,
            0.015640178695321083,
            0.004215094726532698,
            0.011807940900325775,
            -0.00969073548913002,
            0.0031037128064781427,
            -0.036316175013780594,
            -0.035133786499500275,
            -0.002297112252563238,
            0.04732580482959747,
            0.027930160984396935,
            0.05737850069999695,
            0.010036091320216656,
            -0.013615905307233334,
            -0.021835515275597572,
            0.036529943346977234,
            0.036541689187288284,
            0.034051548689603806,
            -0.02246590331196785,
            -0.027410482987761497,
            0.026674523949623108,
            0.05127086117863655,
            0.045548614114522934,
            0.07986655086278915,
            0.037493232637643814,
            0.011549283750355244,
            -0.024046670645475388,
            -0.0406111478805542,
            -0.014207180589437485,
            -0.013546016067266464,
            0.05089081451296806,
            0.05016101151704788,
            -0.004074962809681892,
            0.01318693719804287,
            -0.03242562338709831,
            -0.04483521729707718,
            0.009518918581306934,
            0.03998471423983574,
            0.029441893100738525,
            0.06908370554447174,
            0.023598438128829002,
            0.04329408332705498,
            0.03566596657037735,
            0.06733042001724243,
            0.032440707087516785,
            0.047168657183647156,
            0.020741812884807587,
            -0.019654426723718643,
            0.013472674414515495,
            0.06761809438467026,
            0.08535000681877136,
            0.07415299862623215,
            0.019919270649552345,
            0.0031813359819352627,
            0.01027325727045536,
            0.02275347150862217,
            -0.013361622579395771,
            -0.0457029826939106,
            0.05485903099179268,
            0.00044225924648344517,
            0.03125079348683357,
            0.05044501647353172,
            0.03362385183572769,
            0.004738901276141405,
            0.02586405910551548,
            0.018425781279802322,
            0.01089298352599144,
            0.05126665532588959,
            0.06326447427272797,
            0.03459644690155983,
            0.07941639423370361,
            0.033190157264471054,
            0.05689019337296486,
            0.042763594537973404,
            0.01748209446668625,
            0.04482559859752655,
            0.011350859887897968,
            0.02770937792956829,
            0.10035225749015808,
            0.03018638864159584,
            0.0142253702506423,
            0.017176702618598938,
            -0.013067311607301235,
            -0.014587526209652424,
            -0.04430287331342697,
            0.008850259706377983,
            0.021820850670337677,
            -0.007895884104073048,
